=== Run information ===

Scheme:       weka.classifiers.trees.J48 -C 0.25 -M 2
Relation:     all-combined-weka.filters.unsupervised.instance.Randomize-S2225-weka.filters.unsupervised.instance.Resample-S1-Z80.0-no-replacement
Instances:    1036
Attributes:   63
              avgw3delay_div_avgw1delay
              avgw3delay_div_minw1delay
              avgw3delay_div_maxw1delay
              avgw3delay_div_avgw2delay
              avgw3delay_div_minw2delay
              avgw3delay_div_maxw2delay
              minw3delay_div_avgw1delay
              minw3delay_div_minw1delay
              minw3delay_div_maxw1delay
              minw3delay_div_avgw2delay
              minw3delay_div_minw2delay
              minw3delay_div_maxw2delay
              maxw3delay_div_avgw1delay
              maxw3delay_div_minw1delay
              maxw3delay_div_maxw1delay
              maxw3delay_div_avgw2delay
              maxw3delay_div_minw2delay
              maxw3delay_div_maxw2delay
              minw3delay_div_maxw3delay
              stdw3delay_div_stdw1delay
              stdw3delay_div_stdw2delay
              stdw1delay_div_stdw2delay
              avgw1delay_div_avgw2delay
              avgw1delay_div_minw2delay
              avgw1delay_div_maxw2delay
              minw1delay_div_avgw2delay
              minw1delay_div_minw2delay
              minw1delay_div_maxw2delay
              maxw1delay_div_avgw2delay
              maxw1delay_div_minw2delay
              maxw1delay_div_maxw2delay
              avgw3iat_div_avgw1iat
              avgw3iat_div_minw1iat
              avgw3iat_div_maxw1iat
              avgw3iat_div_avgw2iat
              avgw3iat_div_minw2iat
              avgw3iat_div_maxw2iat
              minw3iat_div_avgw1iat
              minw3iat_div_minw1iat
              minw3iat_div_maxw1iat
              minw3iat_div_avgw2iat
              minw3iat_div_minw2iat
              minw3iat_div_maxw2iat
              maxw3iat_div_avgw1iat
              maxw3iat_div_minw1iat
              maxw3iat_div_maxw1iat
              maxw3iat_div_avgw2iat
              maxw3iat_div_minw2iat
              maxw3iat_div_maxw2iat
              minw3iat_div_maxw3iat
              stdw3iat_div_stdw1iat
              stdw3iat_div_stdw2iat
              stdw1iat_div_stdw2iat
              avgw1iat_div_avgw2iat
              avgw1iat_div_minw2iat
              avgw1iat_div_maxw2iat
              minw1iat_div_avgw2iat
              minw1iat_div_minw2iat
              minw1iat_div_maxw2iat
              maxw1iat_div_avgw2iat
              maxw1iat_div_minw2iat
              maxw1iat_div_maxw2iat
              class
Test mode:    split 75.0% train, remainder test

=== Classifier model (full training set) ===

J48 pruned tree
------------------

maxw3delay_div_maxw2delay <= 1
|   minw3delay_div_maxw3delay <= 0.840909
|   |   minw3delay_div_maxw1delay <= 1.382353
|   |   |   minw3delay_div_minw2delay <= 1.152789
|   |   |   |   maxw3iat_div_avgw2iat <= 5.172414
|   |   |   |   |   maxw3delay_div_maxw1delay <= 0.816667
|   |   |   |   |   |   avgw1delay_div_avgw2delay <= 0.91217
|   |   |   |   |   |   |   minw3delay_div_maxw3delay <= 0.494444
|   |   |   |   |   |   |   |   maxw3delay_div_maxw2delay <= 0.968254
|   |   |   |   |   |   |   |   |   avgw3delay_div_avgw2delay <= 0.540865
|   |   |   |   |   |   |   |   |   |   avgw1delay_div_maxw2delay <= 0.681905: n (3.0)
|   |   |   |   |   |   |   |   |   |   avgw1delay_div_maxw2delay > 0.681905
|   |   |   |   |   |   |   |   |   |   |   minw3iat_div_avgw2iat <= 1.055965: c (10.0/1.0)
|   |   |   |   |   |   |   |   |   |   |   minw3iat_div_avgw2iat > 1.055965: n (2.0)
|   |   |   |   |   |   |   |   |   avgw3delay_div_avgw2delay > 0.540865: c (13.0)
|   |   |   |   |   |   |   |   maxw3delay_div_maxw2delay > 0.968254
|   |   |   |   |   |   |   |   |   minw3delay_div_maxw3delay <= 0.373626: c (7.0)
|   |   |   |   |   |   |   |   |   minw3delay_div_maxw3delay > 0.373626
|   |   |   |   |   |   |   |   |   |   minw3delay_div_maxw3delay <= 0.413223: n (14.0/2.0)
|   |   |   |   |   |   |   |   |   |   minw3delay_div_maxw3delay > 0.413223
|   |   |   |   |   |   |   |   |   |   |   maxw1iat_div_maxw2iat <= 0.952381: n (4.0/1.0)
|   |   |   |   |   |   |   |   |   |   |   maxw1iat_div_maxw2iat > 0.952381: c (20.0/7.0)
|   |   |   |   |   |   |   minw3delay_div_maxw3delay > 0.494444: c (13.0)
|   |   |   |   |   |   avgw1delay_div_avgw2delay > 0.91217: c (196.0/1.0)
|   |   |   |   |   maxw3delay_div_maxw1delay > 0.816667: n (8.0/1.0)
|   |   |   |   maxw3iat_div_avgw2iat > 5.172414: c (132.0/2.0)
|   |   |   minw3delay_div_minw2delay > 1.152789
|   |   |   |   maxw3iat_div_avgw2iat <= 4.950495
|   |   |   |   |   stdw3iat_div_stdw2iat <= 1.005439: c (11.0)
|   |   |   |   |   stdw3iat_div_stdw2iat > 1.005439: n (3.0)
|   |   |   |   maxw3iat_div_avgw2iat > 4.950495
|   |   |   |   |   stdw3delay_div_stdw1delay <= 2.824209: n (11.0)
|   |   |   |   |   stdw3delay_div_stdw1delay > 2.824209
|   |   |   |   |   |   maxw3delay_div_minw1delay <= 0.655172: n (2.0)
|   |   |   |   |   |   maxw3delay_div_minw1delay > 0.655172: c (3.0)
|   |   minw3delay_div_maxw1delay > 1.382353: c (33.0)
|   minw3delay_div_maxw3delay > 0.840909
|   |   stdw3delay_div_stdw2delay <= 1.577531
|   |   |   maxw1delay_div_minw2delay <= 1.018349
|   |   |   |   avgw3delay_div_minw1delay <= 1.013903: n (2.0)
|   |   |   |   avgw3delay_div_minw1delay > 1.013903: c (12.0/1.0)
|   |   |   maxw1delay_div_minw2delay > 1.018349
|   |   |   |   maxw1delay_div_avgw2delay <= 1.072781
|   |   |   |   |   maxw1iat_div_avgw2iat <= 2.988048: n (18.0)
|   |   |   |   |   maxw1iat_div_avgw2iat > 2.988048
|   |   |   |   |   |   minw3iat_div_maxw1iat <= 1.090909
|   |   |   |   |   |   |   minw3iat_div_maxw1iat <= 0.785714
|   |   |   |   |   |   |   |   stdw3delay_div_stdw1delay <= 0.779562: c (5.0)
|   |   |   |   |   |   |   |   stdw3delay_div_stdw1delay > 0.779562
|   |   |   |   |   |   |   |   |   avgw3delay_div_minw2delay <= 1.016129
|   |   |   |   |   |   |   |   |   |   stdw3iat_div_stdw2iat <= 0.77652: n (2.0)
|   |   |   |   |   |   |   |   |   |   stdw3iat_div_stdw2iat > 0.77652: c (4.0)
|   |   |   |   |   |   |   |   |   avgw3delay_div_minw2delay > 1.016129: n (6.0)
|   |   |   |   |   |   |   minw3iat_div_maxw1iat > 0.785714: n (36.0/2.0)
|   |   |   |   |   |   minw3iat_div_maxw1iat > 1.090909
|   |   |   |   |   |   |   maxw1delay_div_avgw2delay <= 1.010344
|   |   |   |   |   |   |   |   maxw3delay_div_maxw2delay <= 0.995885: c (9.0)
|   |   |   |   |   |   |   |   maxw3delay_div_maxw2delay > 0.995885
|   |   |   |   |   |   |   |   |   avgw1delay_div_minw2delay <= 1.004058: n (3.0)
|   |   |   |   |   |   |   |   |   avgw1delay_div_minw2delay > 1.004058: c (7.0/1.0)
|   |   |   |   |   |   |   maxw1delay_div_avgw2delay > 1.010344: n (10.0)
|   |   |   |   maxw1delay_div_avgw2delay > 1.072781: n (37.0)
|   |   stdw3delay_div_stdw2delay > 1.577531: c (14.0)
maxw3delay_div_maxw2delay > 1
|   minw3delay_div_maxw2delay <= 0.891257
|   |   maxw3delay_div_maxw2delay <= 1.016529: c (5.0)
|   |   maxw3delay_div_maxw2delay > 1.016529
|   |   |   minw3iat_div_maxw2iat <= 0.18: c (3.0/1.0)
|   |   |   minw3iat_div_maxw2iat > 0.18: n (12.0)
|   minw3delay_div_maxw2delay > 0.891257: n (366.0/1.0)

Number of Leaves  : 	36

Size of the tree : 	71


Time taken to build model: 0.07 seconds

=== Evaluation on test split ===

Time taken to test model on training split: 0 seconds

=== Summary ===

Correctly Classified Instances         235               90.7336 %
Incorrectly Classified Instances        24                9.2664 %
Kappa statistic                          0.8142
Mean absolute error                      0.1026
Root mean squared error                  0.2915
Relative absolute error                 20.5693 %
Root relative squared error             58.3418 %
Total Number of Instances              259     

=== Detailed Accuracy By Class ===

                 TP Rate  FP Rate  Precision  Recall   F-Measure  MCC      ROC Area  PRC Area  Class
                 0.895    0.081    0.910      0.895    0.902      0.814    0.897     0.859     c
                 0.919    0.105    0.905      0.919    0.912      0.814    0.897     0.884     n
Weighted Avg.    0.907    0.094    0.907      0.907    0.907      0.814    0.897     0.872     

=== Confusion Matrix ===

   a   b   <-- classified as
 111  13 |   a = c
  11 124 |   b = n

